{"gradients/rnn.bias_hh_l1_reverse":{"values":[1,0,0,0,0,0,0,0,0,0,0,0,0,0,0,0,0,0,0,0,2,1,0,1,1,1,3,0,0,0,1,0,2,2,0,0,1,3,5,6,14,31,69,42,17,13,4,3,3,1,1,1,0,1,1,4,2,1,0,0,0,0,0,2],"bins":[-0.015649478882551193,-0.01527976430952549,-0.014910048805177212,-0.014540333300828934,-0.01417061872780323,-0.013800904154777527,-0.013431188650429249,-0.01306147314608097,-0.012691758573055267,-0.012322044000029564,-0.011952328495681286,-0.011582612991333008,-0.011212898418307304,-0.010843183845281601,-0.010473468340933323,-0.010103752836585045,-0.009734038263559341,-0.009364323690533638,-0.00899460818618536,-0.008624892681837082,-0.008255178108811378,-0.007885463535785675,-0.007515748031437397,-0.007146032992750406,-0.0067763179540634155,-0.006406602915376425,-0.006036887876689434,-0.005667172838002443,-0.005297457799315453,-0.004927742760628462,-0.004558027721941471,-0.00418831268325448,-0.0038185976445674896,-0.003448882605880499,-0.003079167567193508,-0.0027094525285065174,-0.0023397374898195267,-0.001970022451132536,-0.0016003074124455452,-0.0012305923737585545,-0.0008608773350715637,-0.000491162296384573,-0.00012144725769758224,0.0002482677809894085,0.0006179828196763992,0.00098769785836339,0.0013574128970503807,0.0017271279357373714,0.002096842974424362,0.002466558013111353,0.0028362730517983437,0.0032059880904853344,0.003575703129172325,0.003945418167859316,0.004315133206546307,0.004684848245233297,0.005054563283920288,0.005424278322607279,0.0057939933612942696,0.00616370839998126,0.006533423438668251,0.006903138477355242,0.0072728535160422325,0.007642568554729223,0.008012283593416214],"_type":"histogram"},"Train_total_loss":0.0002024809451466243,"gradients/rnn.weight_hh_l2_reverse":{"values":[1,0,0,0,0,0,0,0,0,1,1,0,1,2,3,3,6,6,5,10,16,21,48,73,137,291,1197,10856,1147,277,121,63,29,30,18,12,8,5,2,2,2,1,0,0,1,2,0,0,0,1,0,0,0,0,0,0,0,0,0,0,0,0,0,1],"bins":[-0.006163103971630335,-0.005938778165727854,-0.005714452359825373,-0.005490126553922892,-0.005265800282359123,-0.005041474476456642,-0.004817148670554161,-0.00459282286465168,-0.004368497058749199,-0.004144171252846718,-0.003919845446944237,-0.003695519408211112,-0.003471193602308631,-0.00324686779640615,-0.003022541757673025,-0.002798215951770544,-0.002573890145868063,-0.002349564339965582,-0.002125238534063101,-0.001900912495329976,-0.001676586689427495,-0.001452260883525014,-0.001227934961207211,-0.0010036090388894081,-0.000779283232986927,-0.000554957368876785,-0.00033063150476664305,-0.00010630564065650105,0.00011802022345364094,0.00034234608756378293,0.0005666719516739249,0.0007909978157840669,0.0010153241455554962,0.0012396499514579773,0.0014639758737757802,0.001688301796093583,0.0019126276019960642,0.0021369534078985453,0.00236127944663167,0.002585605252534151,0.002809931058436632,0.0030342568643391132,0.0032585826702415943,0.003482908708974719,0.0037072345148772,0.003931560553610325,0.004155886359512806,0.004380212165415287,0.004604537971317768,0.004828863777220249,0.00505318958312273,0.005277515389025211,0.005501841194927692,0.005726167466491461,0.005950493272393942,0.006174819078296423,0.006399144884198904,0.006623470690101385,0.006847796496003866,0.007072122301906347,0.007296448573470116,0.007520774379372597,0.007745100185275078,0.007969425991177559,0.00819375179708004],"_type":"histogram"},"Train_seq_loss":4.65706129837926e-05,"gradients/rnn.bias_ih_l2_reverse":{"bins":[-0.005777666345238686,-0.005577616393566132,-0.00537756597623229,-0.005177516024559736,-0.004977466072887182,-0.004777416121214628,-0.004577365703880787,-0.004377315752208233,-0.004177265800535679,-0.0039772153832018375,-0.0037771654315292835,-0.0035771154798567295,-0.003377065295353532,-0.003177015343680978,-0.00297696515917778,-0.002776915207505226,-0.0025768650230020285,-0.002376814838498831,-0.0021767648868262768,-0.001976714702323079,-0.001776664750650525,-0.0015766145661473274,-0.0013765644980594516,-0.0011765144299715757,-0.0009764643618836999,-0.000776414293795824,-0.0005763642257079482,-0.00037631409941241145,-0.0001762640313245356,2.3786051315255463e-05,0.00022383613395504653,0.00042388623114675283,0.0006239362992346287,0.0008239863673225045,0.0010240364354103804,0.0012240865034982562,0.001424136571586132,0.0016241867560893297,0.0018242368241772056,0.0020242868922650814,0.0022243368439376354,0.002424387028440833,0.0026244372129440308,0.0028244871646165848,0.0030245373491197824,0.0032245873007923365,0.003424637485295534,0.003624687436968088,0.003824737621471286,0.0040247878059744835,0.0042248377576470375,0.0044248877093195915,0.004624938126653433,0.004824988078325987,0.005025038029998541,0.005225087981671095,0.005425138399004936,0.00562518835067749,0.005825238302350044,0.006025288719683886,0.00622533867135644,0.006425388623028994,0.006625438574701548,0.006825488992035389,0.007025538943707943],"_type":"histogram","values":[1,0,0,0,0,0,0,0,0,0,0,0,3,0,0,1,0,0,1,1,1,1,3,0,6,6,8,32,67,70,13,7,4,3,2,3,0,0,2,0,0,1,0,1,0,0,0,0,0,0,1,0,0,0,0,1,0,0,0,0,0,0,0,1]},"gradients/rnn.weight_ih_l0_reverse":{"_type":"histogram","values":[1,0,1,1,2,0,0,1,1,1,2,3,1,6,4,6,15,9,18,24,31,39,42,75,90,97,139,236,801,2928,3149,933,272,155,111,91,88,57,32,30,21,14,16,14,10,0,7,5,2,3,3,2,2,0,0,1,3,2,2,0,0,0,0,1],"bins":[-0.010162880644202232,-0.009825211018323898,-0.009487541392445564,-0.009149870835244656,-0.008812201209366322,-0.008474531583487988,-0.008136861957609653,-0.007799191866070032,-0.007461522240191698,-0.007123852614313364,-0.006786182522773743,-0.006448512896895409,-0.006110843271017075,-0.005773173179477453,-0.005435503553599119,-0.005097833462059498,-0.004760163836181164,-0.00442249421030283,-0.004084824118763208,-0.0037471544928848743,-0.0034094846341758966,-0.003071814775466919,-0.002734145149588585,-0.002396475290879607,-0.0020588054321706295,-0.0017211355734616518,-0.001383465831167996,-0.00104579608887434,-0.0007081262301653624,-0.00037045642966404557,-3.2786629162728786e-05,0.000304883171338588,0.0006425539031624794,0.000980223761871457,0.001317893504165113,0.0016555632464587688,0.0019932331051677465,0.0023309029638767242,0.0026685725897550583,0.003006242448464036,0.0033439123071730137,0.0036815821658819914,0.004019252024590969,0.004356921650469303,0.004694591276347637,0.0050322613678872585,0.005369930993765593,0.005707601085305214,0.006045270711183548,0.006382940337061882,0.006720610428601503,0.007058280054479837,0.007395950146019459,0.007733619771897793,0.008071289397776127,0.008408959023654461,0.00874662958085537,0.009084299206733704,0.009421968832612038,0.009759638458490372,0.010097308084368706,0.01043497771024704,0.010772648267447948,0.011110317893326283,0.011447987519204617]},"gradients/murmur_linear.0.weight":{"_type":"histogram","values":[1,0,0,0,0,0,0,0,0,0,0,0,0,0,0,0,0,0,0,0,0,0,0,0,0,0,0,0,0,0,0,0,0,0,0,0,0,0,0,0,0,0,0,0,0,0,0,0,0,0,0,0,0,0,0,0,0,0,0,0,0,0,0,1],"bins":[-0.009772603400051594,-0.00946721900254488,-0.00916183553636074,-0.008856451138854027,-0.008551066741347313,-0.008245683275163174,-0.00794029887765646,-0.007634914945811033,-0.007329531013965607,-0.00702414708212018,-0.006718763150274754,-0.00641337875276804,-0.006107994820922613,-0.005802610889077187,-0.005497226491570473,-0.005191842559725046,-0.00488645862787962,-0.004581074696034193,-0.0042756907641887665,-0.003970306366682053,-0.003664922434836626,-0.0033595385029911995,-0.0030541543383151293,-0.002748770173639059,-0.0024433862417936325,-0.002138002309948206,-0.0018326181452721357,-0.0015272340970113873,-0.001221850048750639,-0.0009164660004898906,-0.0006110819522291422,-0.0003056979039683938,-3.129243850708008e-07,0.0003050711238756776,0.000610455172136426,0.0009158392203971744,0.0012212232686579227,0.0015266073169186711,0.0018319913651794195,0.0021373755298554897,0.0024427594617009163,0.002748143393546343,0.003053527558222413,0.0033589117228984833,0.00366429565474391,0.003969679586589336,0.00427506398409605,0.004580447915941477,0.004885831847786903,0.00519121577963233,0.0054965997114777565,0.00580198410898447,0.006107368040829897,0.0064127519726753235,0.006718136370182037,0.007023520302027464,0.0073289042338728905,0.007634288165718317,0.007939672097563744,0.008245056495070457,0.008550440892577171,0.00885582435876131,0.009161208756268024,0.009466592222452164,0.009771976619958878]},"gradients/rnn.weight_hh_l2":{"_type":"histogram","values":[1,0,0,0,0,0,0,1,0,0,0,1,2,3,1,2,5,3,6,5,12,17,25,32,39,58,90,173,351,1147,7665,3461,617,273,144,70,54,36,27,13,12,14,10,9,2,6,4,1,1,0,1,1,1,1,0,0,1,1,0,0,0,0,0,1],"bins":[-0.0040087043307721615,-0.003878482850268483,-0.003748261369764805,-0.0036180398892611265,-0.003487818408757448,-0.0033575966954231262,-0.003227375214919448,-0.0030971537344157696,-0.0029669322539120913,-0.002836710773408413,-0.0027064892929047346,-0.0025762678124010563,-0.0024460460990667343,-0.002315824618563056,-0.0021856031380593777,-0.0020553816575556993,-0.001925160177052021,-0.0017949386965483427,-0.0016647172160446644,-0.0015344956191256642,-0.001404274138621986,-0.0012740526581183076,-0.0011438310611993074,-0.0010136095806956291,-0.0008833881001919508,-0.0007531666196882725,-0.0006229450809769332,-0.000492723542265594,-0.0003625020617619157,-0.0002322805521544069,-0.00010205904254689813,2.8162467060610652e-05,0.00015838351100683212,0.0002886050206143409,0.0004188265302218497,0.0005490480689331889,0.0006792695494368672,0.0008094910299405456,0.0009397125686518848,0.001069934107363224,0.0012001555878669024,0.0013303770683705807,0.001460598548874259,0.0015908201457932591,0.0017210416262969375,0.0018512631068006158,0.001981484703719616,0.0021117061842232943,0.0022419276647269726,0.002372149145230651,0.0025023706257343292,0.0026325921062380075,0.002762813586741686,0.002893035300076008,0.003023256780579686,0.0031534782610833645,0.003283699741587043,0.003413921222090721,0.0035441427025943995,0.0036743641830980778,0.0038045858964323997,0.003934807144105434,0.004065028857439756,0.004195250105112791,0.004325471818447113]},"gradients/rnn.bias_ih_l2":{"_type":"histogram","values":[1,0,0,0,0,0,0,0,0,0,0,0,1,0,0,0,1,2,0,1,1,0,2,2,1,5,5,13,30,67,55,19,10,5,1,4,3,0,1,3,0,0,0,1,2,1,0,0,0,0,0,1,0,0,0,0,0,0,0,0,0,0,0,2],"bins":[-0.004779987037181854,-0.004620261024683714,-0.004460535012185574,-0.0043008094653487206,-0.00414108345285058,-0.00398135744035244,-0.0038216314278542995,-0.003661905648186803,-0.0035021796356886625,-0.003342453623190522,-0.0031827278435230255,-0.003023001831024885,-0.002863275818526745,-0.002703550038859248,-0.002543824026361108,-0.002384098246693611,-0.002224372234195471,-0.0020646462216973305,-0.0019049204420298338,-0.0017451944295316935,-0.001585468533448875,-0.0014257426373660564,-0.001266016624867916,-0.0011062907287850976,-0.0009465648327022791,-0.0007868389366194606,-0.0006271129823289812,-0.0004673870571423322,-0.00030766113195568323,-0.00014793520676903427,1.1790718417614698e-05,0.00017151664360426366,0.0003312421031296253,0.0004909679992124438,0.0006506939535029233,0.0008104199077934027,0.0009701458038762212,0.0011298716999590397,0.00128959771245718,0.0014493236085399985,0.001609049504622817,0.0017687754007056355,0.001928501296788454,0.0020882273092865944,0.0022479533217847347,0.0024076791014522314,0.0025674051139503717,0.0027271308936178684,0.0028868569061160088,0.003046582918614149,0.0032063086982816458,0.003366034710779786,0.003525760490447283,0.003685486502945423,0.0038452125154435635,0.004004938527941704,0.004164664074778557,0.004324390087276697,0.0044841160997748375,0.004643842112272978,0.004803568124771118,0.0049632941372692585,0.0051230196841061115,0.005282745696604252,0.005442471709102392]},"gradients/layer_norm1.weight":{"_type":"histogram","values":[1,0,0,0,0,0,0,0,0,1,0,0,1,0,0,0,1,3,0,1,2,2,1,1,4,1,3,2,3,1,2,6,6,6,9,11,5,4,9,5,3,4,5,1,4,2,2,1,1,1,0,0,0,1,0,2,0,0,0,1,0,0,0,1],"bins":[-0.0011369334533810616,-0.001104237511754036,-0.0010715416865423322,-0.0010388457449153066,-0.001006149803288281,-0.0009734539198689163,-0.0009407580364495516,-0.000908062094822526,-0.0008753662114031613,-0.0008426703279837966,-0.000809974386356771,-0.0007772785029374063,-0.0007445826195180416,-0.000711886677891016,-0.0006791907944716513,-0.0006464948528446257,-0.000613798969425261,-0.0005811030860058963,-0.0005484071443788707,-0.000515711260959506,-0.0004830153484363109,-0.00045031943591311574,-0.00041762355249375105,-0.0003849276399705559,-0.00035223172744736075,-0.0003195358149241656,-0.00028683990240097046,-0.00025414401898160577,-0.00022144810645841062,-0.00018875219393521547,-0.00015605629596393555,-0.00012336039799265563,-9.06645436771214e-05,-5.796863842988387e-05,-2.5272733182646334e-05,7.423172064591199e-06,4.011907731182873e-05,7.281498255906627e-05,0.0001055108878063038,0.00013820678577758372,0.00017090269830077887,0.000203598610823974,0.00023629450879525393,0.00026899040676653385,0.000301686319289729,0.00033438223181292415,0.00036707811523228884,0.000399774027755484,0.00043246994027867913,0.0004651658528018743,0.0004978617653250694,0.0005305576487444341,0.0005632535321637988,0.0005959494737908244,0.0006286453572101891,0.0006613412988372147,0.0006940371822565794,0.0007267330656759441,0.0007594290073029697,0.0007921248907223344,0.00082482083234936,0.0008575167157687247,0.0008902125991880894,0.000922908540815115,0.0009556044242344797]},"Val_seq_loss":0.0012490885795923225,"Val_murmur_loss":0.0086942919950445,"Train_murmur_loss":0.0005663509131590279,"Val_total_loss":0.009943380637510919,"gradients/frame_linear.4.weight":{"values":[1,0,2,0,1,0,0,0,0,0,0,0,2,0,1,1,0,0,2,0,0,3,0,3,0,3,2,6,9,16,8,16,10,8,3,3,0,1,0,2,1,1,1,1,0,1,0,4,1,1,1,2,0,0,0,0,0,1,0,0,1,0,0,1],"bins":[-0.007191679440438747,-0.0069599756971001625,-0.006728272419422865,-0.00649656867608428,-0.006264865398406982,-0.0060331616550683975,-0.0058014583773911,-0.005569754634052515,-0.0053380513563752174,-0.0051063476130366325,-0.004874644335359335,-0.00464294059202075,-0.0044112373143434525,-0.0041795335710048676,-0.00394783029332757,-0.003716126549988985,-0.003484423039481044,-0.0032527195289731026,-0.0030210160184651613,-0.00278931250795722,-0.002557608997449279,-0.0023259054869413376,-0.0020942019764333963,-0.0018624983495101333,-0.001630794839002192,-0.0013990913284942508,-0.0011673878179863095,-0.0009356842492707074,-0.0007039807387627661,-0.0004722772282548249,-0.00024057368864305317,-8.8701635831967e-06,0.00022283336147665977,0.000454536871984601,0.0006862403824925423,0.0009179439512081444,0.0011496474035084248,0.0013813510304316878,0.001613054540939629,0.0018447580514475703,0.0020764614455401897,0.0023081651888787746,0.002539868699386716,0.002771572209894657,0.0030032757204025984,0.0032349792309105396,0.003466682741418481,0.003698386251926422,0.003930089995265007,0.004161793272942305,0.0043934970162808895,0.004625200293958187,0.004856904037296772,0.00508860731497407,0.0053203110583126545,0.005552014335989952,0.005783718079328537,0.006015421357005835,0.0062471251003444195,0.006478828378021717,0.006710532121360302,0.0069422353990375996,0.0071739391423761845,0.007405642420053482,0.007637346163392067],"_type":"histogram"},"gradients/selfattn_layer.out_proj.bias":{"values":[1,0,0,0,0,0,0,0,0,0,0,0,0,0,1,0,1,1,1,1,2,2,2,3,1,3,4,3,2,2,5,3,4,3,3,2,1,5,4,8,5,8,8,4,1,5,4,1,3,6,2,2,0,1,0,0,0,0,0,1,0,0,0,1],"bins":[-0.0031662839464843273,-0.0030802295077592134,-0.0029941750690340996,-0.002908120397478342,-0.002822065958753228,-0.0027360115200281143,-0.0026499570813030005,-0.002563902409747243,-0.002477847971022129,-0.002391793532297015,-0.0023057390935719013,-0.0022196846548467875,-0.00213362998329103,-0.002047575544565916,-0.001961521105840802,-0.0018754665507003665,-0.0017894121119752526,-0.0017033576732501388,-0.001617303118109703,-0.0015312486793845892,-0.0014451941242441535,-0.0013591396855190396,-0.001273085130378604,-0.00118703069165349,-0.0011009762529283762,-0.0010149216977879405,-0.0009288672008551657,-0.0008428127039223909,-0.0007567582651972771,-0.0006707037682645023,-0.0005846492713317275,-0.0004985947743989527,-0.00041254027746617794,-0.00032648578053340316,-0.0002404312981525436,-0.00015437681577168405,-6.832231883890927e-05,1.77321708179079e-05,0.00010378666047472507,0.00018984114285558462,0.0002758956397883594,0.0003619501367211342,0.00044800463365390897,0.0005340591305866838,0.0006201135693117976,0.0007061680662445724,0.0007922225631773472,0.000878277060110122,0.0009643315570428967,0.0010503859957680106,0.0011364405509084463,0.0012224949896335602,0.0013085495447739959,0.0013946039834991097,0.0014806585386395454,0.0015667129773646593,0.0016527674160897732,0.0017388219712302089,0.0018248764099553227,0.0019109309650957584,0.0019969854038208723,0.002083039842545986,0.0021690945141017437,0.0022551489528268576,0.0023412033915519714],"_type":"histogram"},"gradients/rnn.weight_hh_l0_reverse":{"values":[1,1,0,0,0,0,1,0,0,0,3,3,2,3,3,5,4,11,12,11,10,21,27,25,35,42,80,94,150,167,246,421,1339,5398,4173,875,362,208,163,119,94,65,54,43,30,19,17,13,6,7,7,6,3,6,2,1,1,3,0,1,2,2,0,3],"bins":[-0.0053679728880524635,-0.0052096121944487095,-0.005051251966506243,-0.004892891272902489,-0.004734531044960022,-0.004576170351356268,-0.004417810123413801,-0.004259449429810047,-0.00410108920186758,-0.003942728508263826,-0.003784368047490716,-0.0036260075867176056,-0.0034676468931138515,-0.003309286432340741,-0.0031509259715676308,-0.0029925655107945204,-0.00283420505002141,-0.0026758445892482996,-0.002517484128475189,-0.002359123667702079,-0.0022007632069289684,-0.0020424025133252144,-0.001884042052552104,-0.0017256815917789936,-0.0015673211310058832,-0.0014089606702327728,-0.0012506002094596624,-0.0010922396322712302,-0.0009338791714981198,-0.0007755187107250094,-0.0006171581917442381,-0.0004587977018672973,-0.00030043674632906914,-0.0001420762564521283,1.6284233424812555e-05,0.0001746447233017534,0.00033300521317869425,0.0004913656739518046,0.0006497261929325759,0.0008080867119133472,0.0009664471726864576,0.001124807633459568,0.0012831680942326784,0.0014415286714211106,0.001599889132194221,0.0017582495929673314,0.0019166101701557636,0.002074970630928874,0.0022333310917019844,0.002391691552475095,0.002550052013248205,0.0027084124740213156,0.002866772934794426,0.00302513362839818,0.0031834940891712904,0.003341854549944401,0.003500215010717511,0.0036585754714906216,0.003816935932263732,0.003975296393036842,0.004133657086640596,0.004292017314583063,0.004450378008186817,0.004608738236129284,0.004767098929733038],"_type":"histogram"},"gradients/rnn.weight_hh_l1_reverse":{"_type":"histogram","values":[2,0,2,0,0,2,2,4,1,5,2,3,3,3,5,10,12,11,12,19,28,26,45,44,52,79,93,147,234,363,941,4507,5383,1064,398,239,165,113,85,59,41,39,34,21,20,20,15,2,9,9,6,2,0,8,1,4,1,2,2,0,0,0,0,1],"bins":[-0.007952644489705563,-0.007704512681812048,-0.007456380873918533,-0.007208249066025019,-0.006960117258131504,-0.006711984984576702,-0.0064638531766831875,-0.006215721368789673,-0.005967589560896158,-0.005719457753002644,-0.005471325945109129,-0.005223194137215614,-0.004975061863660812,-0.004726930055767298,-0.004478798247873783,-0.0042306664399802685,-0.003982534632086754,-0.003734402824193239,-0.0034862710162997246,-0.0032381389755755663,-0.0029900071676820517,-0.002741875359788537,-0.0024937433190643787,-0.002245611511170864,-0.0019974797032773495,-0.0017493478953838348,-0.0015012159710749984,-0.001253084046766162,-0.0010049522388726473,-0.0007568203727714717,-0.0005086885066702962,-0.00026055664056912065,-1.2423843145370483e-05,0.00023570802295580506,0.0004838398890569806,0.0007319717551581562,0.0009801036212593317,0.0012282354291528463,0.0014763673534616828,0.0017244992777705193,0.001972631085664034,0.0022207628935575485,0.002468894701451063,0.0027170267421752214,0.002965158550068736,0.0032132903579622507,0.003461422398686409,0.0037095542065799236,0.003957686014473438,0.004205817822366953,0.0044539496302604675,0.004702081438153982,0.004950213246047497,0.005198345519602299,0.005446477327495813,0.005694609135389328,0.005942740943282843,0.006190872751176357,0.006439004559069872,0.0066871363669633865,0.0069352686405181885,0.007183400448411703,0.007431532256305218,0.007679664064198732,0.007927795872092247]},"gradients/rnn.weight_ih_l1":{"values":[1,0,1,1,0,0,1,0,1,3,2,5,4,8,10,9,7,20,26,27,44,42,98,110,145,237,372,710,1738,13092,8879,1475,614,377,215,153,101,56,44,41,36,25,16,12,9,13,6,3,3,2,1,1,2,1,0,0,0,0,0,0,0,0,0,1],"bins":[-0.00753703573718667,-0.007284863851964474,-0.00703269150108099,-0.006780519615858793,-0.006528347264975309,-0.006276175379753113,-0.006024003028869629,-0.005771831143647432,-0.005519659258425236,-0.005267486907541752,-0.005015315022319555,-0.004763142671436071,-0.004510970786213875,-0.004258798435330391,-0.004006626550108194,-0.003754454432055354,-0.003502282314002514,-0.0032501101959496737,-0.0029979380778968334,-0.002745765959843993,-0.002493593841791153,-0.0022414219565689564,-0.001989249838516116,-0.001737077720463276,-0.0014849056024104357,-0.0012327334843575954,-0.0009805613663047552,-0.0007283893646672368,-0.00047621724661439657,-0.0002240451576653868,2.812693128362298e-05,0.00028029902023263276,0.0005324715748429298,0.0007846436928957701,0.0010368158109486103,0.0012889878125861287,0.001541159930638969,0.0017933320486918092,0.0020455040503293276,0.002297676168382168,0.002549848286435008,0.0028020204044878483,0.0030541925225406885,0.0033063646405935287,0.0035585365258157253,0.0038107086438685656,0.004062880761921406,0.00431505311280489,0.004567224998027086,0.004819396883249283,0.005071569234132767,0.005323741119354963,0.005575913470238447,0.005828085355460644,0.006080257706344128,0.006332429591566324,0.006584601476788521,0.006836773827672005,0.007088945712894201,0.007341118063777685,0.007593289948999882,0.007845462299883366,0.00809763465076685,0.008349806070327759,0.008601978421211243],"_type":"histogram"},"gradients/layer_norm1.bias":{"bins":[-0.0013497110921889544,-0.0013130605220794678,-0.0012764098355546594,-0.001239759149029851,-0.0012031085789203644,-0.0011664580088108778,-0.0011298073222860694,-0.001093156635761261,-0.0010565060656517744,-0.0010198554955422878,-0.0009832048090174794,-0.0009465541807003319,-0.0009099035523831844,-0.0008732529240660369,-0.0008366022957488894,-0.000799951667431742,-0.0007633010391145945,-0.000726650410797447,-0.0006899997824802995,-0.000653349154163152,-0.0006166985258460045,-0.000580047897528857,-0.0005433972692117095,-0.000506746640894562,-0.0004700960125774145,-0.000433445384260267,-0.0003967947559431195,-0.00036014412762597203,-0.00032349349930882454,-0.00028684287099167705,-0.00025019224267452955,-0.00021354161435738206,-0.00017689098604023457,-0.00014024035772308707,-0.00010358972940593958,-6.693910108879209e-05,-3.0288472771644592e-05,6.362155545502901e-06,4.3012783862650394e-05,7.966341217979789e-05,0.00011631404049694538,0.00015296466881409287,0.00018961529713124037,0.00022626592544838786,0.00026291655376553535,0.00029956718208268285,0.00033621781039983034,0.00037286843871697783,0.00040951906703412533,0.0004461696953512728,0.0004828203236684203,0.0005194709519855678,0.0005561215803027153,0.0005927722086198628,0.0006294228369370103,0.0006660734652541578,0.0007027240935713053,0.0007393747218884528,0.0007760253502056003,0.0008126759785227478,0.0008493266068398952,0.0008859772351570427,0.0009226278634741902,0.0009592784917913377,0.0009959291201084852],"_type":"histogram","values":[1,0,0,0,0,0,0,0,0,0,0,0,0,0,1,0,0,2,1,0,2,2,4,1,2,3,3,4,2,3,6,2,3,3,3,2,2,3,7,6,7,6,9,3,5,1,4,2,3,3,5,1,0,1,0,0,0,0,1,0,0,0,0,1]},"Train_consis_loss":9.159525414972553e-07,"Consis_weight":0.3277227574378037,"gradients/rnn.bias_ih_l1":{"values":[1,0,0,0,0,0,0,0,0,0,0,0,0,1,0,0,1,0,0,1,1,1,0,0,0,1,1,1,0,1,3,1,6,5,4,11,10,15,26,39,57,27,3,4,2,3,1,1,3,1,1,1,2,0,0,1,0,0,0,1,0,1,0,1],"bins":[-0.012311292812228203,-0.012011982500553131,-0.011712673120200634,-0.011413362808525562,-0.01111405249685049,-0.010814743116497993,-0.010515432804822922,-0.01021612249314785,-0.009916812181472778,-0.009617502801120281,-0.00931819248944521,-0.009018882177770138,-0.00871957279741764,-0.008420262485742569,-0.008120952174067497,-0.007821642793715,-0.0075223324820399284,-0.007223022636026144,-0.006923712324351072,-0.006624402478337288,-0.006325092166662216,-0.006025782320648432,-0.005726472474634647,-0.005427162162959576,-0.005127852316945791,-0.004828542470932007,-0.004529232159256935,-0.004229922313243151,-0.003930612467229366,-0.0036313021555542946,-0.00333199230954051,-0.003032682230696082,-0.0027333716861903667,-0.0024340616073459387,-0.0021347515285015106,-0.0018354416824877262,-0.0015361316036432981,-0.00123682152479887,-0.0009375115623697639,-0.0006382015417329967,-0.00033889152109622955,-3.9581500459462404e-05,0.00025972852017730474,0.0005590385408140719,0.000858348561450839,0.001157658640295267,0.0014569686027243733,0.0017562785651534796,0.0020555886439979076,0.0023548987228423357,0.0026542088016867638,0.002953518647700548,0.0032528287265449762,0.0035521388053894043,0.0038514486514031887,0.00415075896307826,0.004450068809092045,0.004749378655105829,0.005048688966780901,0.005347998812794685,0.005647309124469757,0.0059466189704835415,0.006245928816497326,0.006545239128172398,0.006844548974186182],"_type":"histogram"},"gradients/rnn.bias_hh_l1":{"bins":[-0.012311292812228203,-0.012011982500553131,-0.011712673120200634,-0.011413362808525562,-0.01111405249685049,-0.010814743116497993,-0.010515432804822922,-0.01021612249314785,-0.009916812181472778,-0.009617502801120281,-0.00931819248944521,-0.009018882177770138,-0.00871957279741764,-0.008420262485742569,-0.008120952174067497,-0.007821642793715,-0.0075223324820399284,-0.007223022636026144,-0.006923712324351072,-0.006624402478337288,-0.006325092166662216,-0.006025782320648432,-0.005726472474634647,-0.005427162162959576,-0.005127852316945791,-0.004828542470932007,-0.004529232159256935,-0.004229922313243151,-0.003930612467229366,-0.0036313021555542946,-0.00333199230954051,-0.003032682230696082,-0.0027333716861903667,-0.0024340616073459387,-0.0021347515285015106,-0.0018354416824877262,-0.0015361316036432981,-0.00123682152479887,-0.0009375115623697639,-0.0006382015417329967,-0.00033889152109622955,-3.9581500459462404e-05,0.00025972852017730474,0.0005590385408140719,0.000858348561450839,0.001157658640295267,0.0014569686027243733,0.0017562785651534796,0.0020555886439979076,0.0023548987228423357,0.0026542088016867638,0.002953518647700548,0.0032528287265449762,0.0035521388053894043,0.0038514486514031887,0.00415075896307826,0.004450068809092045,0.004749378655105829,0.005048688966780901,0.005347998812794685,0.005647309124469757,0.0059466189704835415,0.006245928816497326,0.006545239128172398,0.006844548974186182],"_type":"histogram","values":[1,0,0,0,0,0,0,0,0,0,0,0,0,1,0,0,1,0,0,1,1,1,0,0,0,1,1,1,0,1,3,1,6,5,4,11,10,15,26,39,57,27,3,4,2,3,1,1,3,1,1,1,2,0,0,1,0,0,0,1,0,1,0,1]},"gradients/rnn.weight_hh_l0":{"_type":"histogram","values":[1,0,0,0,1,0,1,0,3,0,2,4,1,3,4,3,7,9,8,15,26,25,29,42,50,92,115,142,194,288,452,1467,6256,3308,734,317,195,169,111,80,63,46,34,21,18,9,8,10,4,12,4,5,2,1,2,1,2,2,0,0,1,0,0,1],"bins":[-0.005218416918069124,-0.0050589838065207005,-0.004899551160633564,-0.00474011804908514,-0.0045806849375367165,-0.00442125229164958,-0.004261819180101156,-0.0041023860685527325,-0.003942953422665596,-0.0037835203111171722,-0.003624087432399392,-0.003464654553681612,-0.0033052214421331882,-0.003145788563415408,-0.002986355684697628,-0.0028269225731492043,-0.002667489694431424,-0.002508056815713644,-0.0023486237041652203,-0.00218919082544744,-0.00202975794672966,-0.001870324951596558,-0.0017108919564634562,-0.001551459077745676,-0.001392026082612574,-0.0012325930874794722,-0.001073160208761692,-0.0009137272136285901,-0.0007542942767031491,-0.000594861339777708,-0.00043542837374843657,-0.0002759954077191651,-0.00011656247079372406,4.2870480683632195e-05,0.00020230343216098845,0.00036173639819025993,0.000521169335115701,0.000680602272041142,0.0008400352671742439,0.000999468145892024,0.001158901141025126,0.001318334136158228,0.001477767014876008,0.00163720001000911,0.001796633005142212,0.001956065883859992,0.002115498762577772,0.002274931874126196,0.002434364752843976,0.002593797631561756,0.00275323074311018,0.00291266362182796,0.00307209650054574,0.003231529612094164,0.003390962490811944,0.003550395369529724,0.003709828481078148,0.003869261359795928,0.004028694238513708,0.004188127350062132,0.004347559995949268,0.004506993107497692,0.004666426219046116,0.004825858864933252,0.004985291976481676]},"_step":110,"gradients/murmur_linear.0.bias":{"_type":"histogram","values":[1,0,0,0,0,0,0,0,0,0,0,0,0,0,0,0,0,0,0,0,0,0,0,0,0,0,0,0,0,0,0,0,0,0,0,0,0,0,0,0,0,0,0,0,0,0,0,0,0,0,0,0,0,0,0,0,0,0,0,0,0,0,0,1],"bins":[-0.4727337062358856,-0.45796090364456177,-0.4431881308555603,-0.42841532826423645,-0.4136425256729126,-0.39886972308158875,-0.3840969204902649,-0.3693241477012634,-0.3545513451099396,-0.3397785425186157,-0.32500576972961426,-0.3102329671382904,-0.29546016454696655,-0.2806873619556427,-0.26591455936431885,-0.2511417865753174,-0.23636898398399353,-0.22159618139266968,-0.20682339370250702,-0.19205060601234436,-0.1772778034210205,-0.16250500082969666,-0.147732213139534,-0.13295942544937134,-0.11818662285804749,-0.10341382771730423,-0.08864103257656097,-0.07386823743581772,-0.05909544229507446,-0.04432264715433121,-0.02954985201358795,-0.014777056872844696,-4.231929779052734e-06,0.014768563210964203,0.02954135835170746,0.044314153492450714,0.05908694863319397,0.07385974377393723,0.08863253891468048,0.10340533405542374,0.11817812919616699,0.13295093178749084,0.1477237194776535,0.16249650716781616,0.17726930975914001,0.19204211235046387,0.20681490004062653,0.22158768773078918,0.23636049032211304,0.2511332929134369,0.26590609550476074,0.2806788682937622,0.29545167088508606,0.3102244734764099,0.3249972462654114,0.33977004885673523,0.3545428514480591,0.36931565403938293,0.3840884566307068,0.39886122941970825,0.4136340320110321,0.42840683460235596,0.4431796073913574,0.4579524099826813,0.4727252125740051]},"gradients/rnn.weight_ih_l1_reverse":{"_type":"histogram","values":[1,0,1,0,1,0,0,0,0,1,1,1,3,6,5,6,8,14,17,24,38,61,84,111,146,230,393,723,1974,16707,5782,1083,494,261,193,118,95,58,47,32,16,15,14,11,7,3,4,2,1,1,2,0,0,0,0,3,1,0,0,0,0,0,0,1],"bins":[-0.008461075834929943,-0.008176617324352264,-0.00789215974509716,-0.007607701234519482,-0.00732324318960309,-0.007038785144686699,-0.0067543270997703075,-0.006469869054853916,-0.0061854105442762375,-0.005900952499359846,-0.005616494454443455,-0.005332036409527063,-0.005047578364610672,-0.004763120319694281,-0.004478661809116602,-0.004194203764200211,-0.003909745719283819,-0.003625287674367428,-0.003340829396620393,-0.0030563713517040014,-0.0027719130739569664,-0.002487455029040575,-0.0022029969841241837,-0.0019185388227924705,-0.0016340806614607573,-0.001349622500129044,-0.0010651643387973309,-0.0007807062938809395,-0.0004962481325492263,-0.00021179000032134354,7.26681319065392e-05,0.00035712626413442194,0.0006415843963623047,0.0009260425576940179,0.001210500719025731,0.0014949587639421225,0.0017794169252738357,0.002063875086605549,0.0023483331315219402,0.0026327914092689753,0.0029172494541853666,0.003201707499101758,0.003486165776848793,0.0037706238217651844,0.004055081866681576,0.004339539911597967,0.004623998422175646,0.004908456467092037,0.005192914512008429,0.00547737255692482,0.005761830601841211,0.00604628911241889,0.006330747157335281,0.006615205202251673,0.006899663247168064,0.0071841212920844555,0.007468579337000847,0.0077530378475785255,0.00803749542683363,0.008321953937411308,0.008606412447988987,0.008890870027244091,0.00917532853782177,0.009459786117076874,0.009744244627654552]},"gradients/rnn.bias_hh_l2":{"_type":"histogram","values":[1,0,0,0,0,0,0,0,0,0,0,0,1,0,0,0,1,2,0,1,1,0,2,2,1,5,5,13,30,67,55,19,10,5,1,4,3,0,1,3,0,0,0,1,2,1,0,0,0,0,0,1,0,0,0,0,0,0,0,0,0,0,0,2],"bins":[-0.004779987037181854,-0.004620261024683714,-0.004460535012185574,-0.0043008094653487206,-0.00414108345285058,-0.00398135744035244,-0.0038216314278542995,-0.003661905648186803,-0.0035021796356886625,-0.003342453623190522,-0.0031827278435230255,-0.003023001831024885,-0.002863275818526745,-0.002703550038859248,-0.002543824026361108,-0.002384098246693611,-0.002224372234195471,-0.0020646462216973305,-0.0019049204420298338,-0.0017451944295316935,-0.001585468533448875,-0.0014257426373660564,-0.001266016624867916,-0.0011062907287850976,-0.0009465648327022791,-0.0007868389366194606,-0.0006271129823289812,-0.0004673870571423322,-0.00030766113195568323,-0.00014793520676903427,1.1790718417614698e-05,0.00017151664360426366,0.0003312421031296253,0.0004909679992124438,0.0006506939535029233,0.0008104199077934027,0.0009701458038762212,0.0011298716999590397,0.00128959771245718,0.0014493236085399985,0.001609049504622817,0.0017687754007056355,0.001928501296788454,0.0020882273092865944,0.0022479533217847347,0.0024076791014522314,0.0025674051139503717,0.0027271308936178684,0.0028868569061160088,0.003046582918614149,0.0032063086982816458,0.003366034710779786,0.003525760490447283,0.003685486502945423,0.0038452125154435635,0.004004938527941704,0.004164664074778557,0.004324390087276697,0.0044841160997748375,0.004643842112272978,0.004803568124771118,0.0049632941372692585,0.0051230196841061115,0.005282745696604252,0.005442471709102392]},"gradients/rnn.bias_ih_l0":{"_type":"histogram","values":[1,0,0,0,0,0,0,1,0,0,0,0,0,0,1,2,0,3,0,2,3,0,2,4,5,6,5,9,25,29,47,31,20,8,6,1,2,2,4,2,0,1,2,0,1,0,2,2,3,0,0,1,2,0,0,0,1,0,1,1,0,1,0,1],"bins":[-0.007984340190887451,-0.007721493020653725,-0.007458645850419998,-0.007195798680186272,-0.006932951509952545,-0.006670103874057531,-0.006407256703823805,-0.006144409533590078,-0.005881562363356352,-0.005618715193122625,-0.005355868022888899,-0.005093020852655172,-0.0048301732167601585,-0.004567326046526432,-0.0043044788762927055,-0.004041631706058979,-0.0037787845358252525,-0.003515937365591526,-0.0032530901953577995,-0.0029902427922934294,-0.002727395622059703,-0.0024645484518259764,-0.002201701048761606,-0.0019388538785278797,-0.0016760067082941532,-0.0014131595380604267,-0.0011503122514113784,-0.000887465022969991,-0.0006246177945286036,-0.00036177056608721614,-9.892333764582872e-05,0.0001639238907955587,0.0004267720505595207,0.0006896192790009081,0.0009524665074422956,0.0012153137940913439,0.0014781609643250704,0.0017410081345587969,0.002003855537623167,0.0022667027078568935,0.00252954987809062,0.0027923970483243465,0.003055244218558073,0.003318091621622443,0.0035809387918561697,0.003843785962089896,0.004106633365154266,0.004369480535387993,0.004632327705621719,0.004895174875855446,0.005158022046089172,0.005420869216322899,0.005683716386556625,0.005946564022451639,0.006209411192685366,0.006472258362919092,0.006735105533152819,0.006997952703386545,0.007260799873620272,0.007523647043853998,0.007786494679749012,0.008049341849982738,0.008312189020216465,0.008575036190450191,0.008837883360683918]},"_wandb":{"runtime":2207},"gradients/selfattn_layer.out_proj.weight":{"values":[1,0,1,0,1,0,0,1,0,3,1,4,4,6,10,13,17,22,37,33,53,76,85,124,149,215,319,467,604,798,1141,1494,1742,1705,1328,1028,805,524,435,320,224,135,121,71,76,51,57,25,16,16,14,9,6,2,2,0,3,2,1,1,0,1,0,1],"bins":[-0.0010321249719709158,-0.0010007632663473487,-0.0009694015607237816,-0.0009380398551002145,-0.0009066781494766474,-0.0008753164438530803,-0.0008439547382295132,-0.0008125930326059461,-0.000781231326982379,-0.0007498696213588119,-0.0007185079157352448,-0.0006871462101116776,-0.0006557845044881105,-0.0006244227988645434,-0.0005930610932409763,-0.0005616993876174092,-0.0005303376819938421,-0.000498975976370275,-0.0004676142707467079,-0.0004362525651231408,-0.0004048908594995737,-0.0003735291538760066,-0.0003421674482524395,-0.0003108057426288724,-0.0002794440370053053,-0.0002480823313817382,-0.00021672062575817108,-0.00018535892013460398,-0.00015399721451103687,-0.00012263550888746977,-9.127380326390266e-05,-5.991209764033556e-05,-2.8550392016768456e-05,2.811313606798649e-06,3.417301923036575e-05,6.553472485393286e-05,9.689643047749996e-05,0.00012825813610106707,0.00015961984172463417,0.00019098154734820127,0.00022234325297176838,0.0002537049585953355,0.0002850666642189026,0.0003164283698424697,0.0003477900754660368,0.0003791517810896039,0.000410513486713171,0.0004418751923367381,0.0004732368979603052,0.0005045986035838723,0.0005359603092074394,0.0005673220148310065,0.0005986837204545736,0.0006300454260781407,0.0006614071317017078,0.0006927688373252749,0.000724130542948842,0.0007554922485724092,0.0007868539541959763,0.0008182156598195434,0.0008495773654431105,0.0008809390710666776,0.0009123007766902447,0.0009436624823138118,0.0009750241879373789],"_type":"histogram"},"gradients/rnn.bias_hh_l0_reverse":{"_type":"histogram","values":[1,0,1,0,0,0,0,0,0,0,1,1,0,1,0,1,0,1,0,1,0,3,0,2,2,0,3,4,7,10,24,38,32,32,24,18,3,4,3,2,3,2,2,2,1,2,1,1,2,1,0,1,0,0,1,0,0,0,0,0,1,0,0,1],"bins":[-0.008276855573058128,-0.008025412447750568,-0.007773970253765583,-0.00752252759411931,-0.007271084934473038,-0.007019641809165478,-0.006768199149519205,-0.0065167564898729324,-0.00626531383022666,-0.006013871170580387,-0.0057624285109341145,-0.005510985851287842,-0.005259542725980282,-0.005008100066334009,-0.0047566574066877365,-0.004505214747041464,-0.004253772087395191,-0.0040023294277489185,-0.003750886768102646,-0.0034994438756257296,-0.003248001215979457,-0.0029965585563331842,-0.002745115663856268,-0.0024936730042099953,-0.0022422303445637226,-0.00199078768491745,-0.0017393449088558555,-0.001487902132794261,-0.0012364594731479883,-0.0009850168135017157,-0.0007335740374401212,-0.0004821313195861876,-0.0002306876704096794,2.075504744425416e-05,0.00027219776529818773,0.0005236404831521213,0.0007750832010060549,0.0010265258606523275,0.001277968636713922,0.0015294114127755165,0.0017808540724217892,0.002032296732068062,0.0022837393917143345,0.002535182284191251,0.0027866249438375235,0.003038067603483796,0.0032895104959607124,0.003540953155606985,0.0037923958152532578,0.00404383847489953,0.004295281134545803,0.004546723794192076,0.004798166453838348,0.005049609579145908,0.005301052238792181,0.005552494898438454,0.005803937558084726,0.006055380217730999,0.006306822877377272,0.006558265537023544,0.006809708662331104,0.007061151321977377,0.00731259398162365,0.007564036641269922,0.007815479300916195]},"gradients/frame_linear.1.bias":{"bins":[-0.002105007879436016,-0.002047663787379861,-0.0019903196953237057,-0.0019329754868522286,-0.0018756312783807516,-0.0018182871863245964,-0.0017609429778531194,-0.0017035988857969642,-0.0016462546773254871,-0.001588910585269332,-0.0015315664932131767,-0.0014742222847416997,-0.0014168781926855445,-0.0013595339842140675,-0.0013021898921579123,-0.0012448456836864352,-0.00118750159163028,-0.0011301574995741248,-0.0010728132911026478,-0.0010154691990464926,-0.0009581249905750155,-0.0009007808985188603,-0.0008434367482550442,-0.0007860925979912281,-0.000728748447727412,-0.0006714042974635959,-0.0006140601471997797,-0.0005567159969359636,-0.0004993719048798084,-0.00044202772551216185,-0.0003846836043521762,-0.00032733945408836007,-0.00026999530382454395,-0.00021265115356072783,-0.00015530701784882694,-9.796287486096844e-05,-4.061873187310994e-05,1.6725411114748567e-05,7.406955410260707e-05,0.00013141368981450796,0.00018875784007832408,0.0002461019903421402,0.0003034461406059563,0.000360790261765942,0.0004181344120297581,0.0004754785622935742,0.0005328226834535599,0.000590166833717376,0.0006475109839811921,0.0007048551342450082,0.0007621992845088243,0.0008195434347726405,0.0008768875850364566,0.0009342316770926118,0.0009915758855640888,0.001048919977620244,0.0011062640696763992,0.0011636082781478763,0.0012209523702040315,0.0012782965786755085,0.0013356406707316637,0.0013929848792031407,0.001450328971259296,0.001507673179730773,0.0015650172717869282],"_type":"histogram","values":[2,0,0,0,0,0,1,0,0,0,0,0,0,0,0,1,2,0,0,0,0,1,1,0,0,1,1,1,2,2,0,0,1,2,1,2,1,1,0,2,0,1,3,1,0,1,2,2,0,0,0,1,0,1,0,0,1,0,1,0,0,0,0,1]},"gradients/rnn.bias_ih_l1_reverse":{"bins":[-0.015649478882551193,-0.01527976430952549,-0.014910048805177212,-0.014540333300828934,-0.01417061872780323,-0.013800904154777527,-0.013431188650429249,-0.01306147314608097,-0.012691758573055267,-0.012322044000029564,-0.011952328495681286,-0.011582612991333008,-0.011212898418307304,-0.010843183845281601,-0.010473468340933323,-0.010103752836585045,-0.009734038263559341,-0.009364323690533638,-0.00899460818618536,-0.008624892681837082,-0.008255178108811378,-0.007885463535785675,-0.007515748031437397,-0.007146032992750406,-0.0067763179540634155,-0.006406602915376425,-0.006036887876689434,-0.005667172838002443,-0.005297457799315453,-0.004927742760628462,-0.004558027721941471,-0.00418831268325448,-0.0038185976445674896,-0.003448882605880499,-0.003079167567193508,-0.0027094525285065174,-0.0023397374898195267,-0.001970022451132536,-0.0016003074124455452,-0.0012305923737585545,-0.0008608773350715637,-0.000491162296384573,-0.00012144725769758224,0.0002482677809894085,0.0006179828196763992,0.00098769785836339,0.0013574128970503807,0.0017271279357373714,0.002096842974424362,0.002466558013111353,0.0028362730517983437,0.0032059880904853344,0.003575703129172325,0.003945418167859316,0.004315133206546307,0.004684848245233297,0.005054563283920288,0.005424278322607279,0.0057939933612942696,0.00616370839998126,0.006533423438668251,0.006903138477355242,0.0072728535160422325,0.007642568554729223,0.008012283593416214],"_type":"histogram","values":[1,0,0,0,0,0,0,0,0,0,0,0,0,0,0,0,0,0,0,0,2,1,0,1,1,1,3,0,0,0,1,0,2,2,0,0,1,3,5,6,14,31,69,42,17,13,4,3,3,1,1,1,0,1,1,4,2,1,0,0,0,0,0,2]},"gradients/rnn.bias_hh_l0":{"values":[1,0,0,0,0,0,0,1,0,0,0,0,0,0,1,2,0,3,0,2,3,0,2,4,5,6,5,9,25,29,47,31,20,8,6,1,2,2,4,2,0,1,2,0,1,0,2,2,3,0,0,1,2,0,0,0,1,0,1,1,0,1,0,1],"bins":[-0.007984340190887451,-0.007721493020653725,-0.007458645850419998,-0.007195798680186272,-0.006932951509952545,-0.006670103874057531,-0.006407256703823805,-0.006144409533590078,-0.005881562363356352,-0.005618715193122625,-0.005355868022888899,-0.005093020852655172,-0.0048301732167601585,-0.004567326046526432,-0.0043044788762927055,-0.004041631706058979,-0.0037787845358252525,-0.003515937365591526,-0.0032530901953577995,-0.0029902427922934294,-0.002727395622059703,-0.0024645484518259764,-0.002201701048761606,-0.0019388538785278797,-0.0016760067082941532,-0.0014131595380604267,-0.0011503122514113784,-0.000887465022969991,-0.0006246177945286036,-0.00036177056608721614,-9.892333764582872e-05,0.0001639238907955587,0.0004267720505595207,0.0006896192790009081,0.0009524665074422956,0.0012153137940913439,0.0014781609643250704,0.0017410081345587969,0.002003855537623167,0.0022667027078568935,0.00252954987809062,0.0027923970483243465,0.003055244218558073,0.003318091621622443,0.0035809387918561697,0.003843785962089896,0.004106633365154266,0.004369480535387993,0.004632327705621719,0.004895174875855446,0.005158022046089172,0.005420869216322899,0.005683716386556625,0.005946564022451639,0.006209411192685366,0.006472258362919092,0.006735105533152819,0.006997952703386545,0.007260799873620272,0.007523647043853998,0.007786494679749012,0.008049341849982738,0.008312189020216465,0.008575036190450191,0.008837883360683918],"_type":"histogram"},"gradients/selfattn_layer.in_proj_bias":{"bins":[-0.0031016417779028416,-0.0030012584757059813,-0.0029008749406784773,-0.002800491638481617,-0.0027001083362847567,-0.0025997250340878963,-0.0024993414990603924,-0.002398958196863532,-0.0022985748946666718,-0.002198191359639168,-0.0020978080574423075,-0.001997424755245447,-0.001897041336633265,-0.0017966580344364047,-0.0016962746158242226,-0.0015958913136273623,-0.0014955078950151801,-0.001395124476402998,-0.0012947411742061377,-0.0011943577555939555,-0.0010939744533970952,-0.000993591034784913,-0.0008932076743803918,-0.0007928243139758706,-0.0006924409535713494,-0.0005920575931668282,-0.0004916742327623069,-0.00039129084325395525,-0.000290907482849434,-0.0001905241224449128,-9.014074748847634e-05,1.0242620192002505e-05,0.00011062598787248135,0.00021100934827700257,0.0003113927086815238,0.0004117760981898755,0.0005121594294905663,0.0006125428481027484,0.0007129262085072696,0.0008133095689117908,0.0009136929293163121,0.0010140762897208333,0.0011144597083330154,0.0012148430105298758,0.001315226429142058,0.0014156097313389182,0.0015159931499511003,0.0016163764521479607,0.0017167598707601428,0.001817143289372325,0.0019175265915691853,0.0020179098937660456,0.0021182934287935495,0.00221867673099041,0.00231906003318727,0.0024194433353841305,0.0025198268704116344,0.0026202101726084948,0.002720593474805355,0.002820977009832859,0.0029213603120297194,0.0030217436142265797,0.00312212691642344,0.003222510451450944,0.0033228937536478043],"_type":"histogram","values":[1,0,1,0,0,0,0,1,1,1,0,1,0,0,0,1,0,1,3,4,1,2,2,3,4,10,10,5,10,19,148,17,19,18,12,10,12,7,2,5,1,8,5,1,1,0,2,0,2,1,2,1,1,2,0,0,1,0,0,0,0,0,0,1]},"gradients/rnn.weight_ih_l2_reverse":{"bins":[-0.006063079461455345,-0.005893545225262642,-0.005724010523408651,-0.005554475821554661,-0.0053849415853619576,-0.005215407349169254,-0.005045872647315264,-0.004876337945461273,-0.00470680370926857,-0.004537269473075867,-0.004367734771221876,-0.004198200069367886,-0.004028665833175182,-0.0038591313641518354,-0.0036895968951284885,-0.0035200624261051416,-0.0033505279570817947,-0.003180993488058448,-0.003011459019035101,-0.002841924550011754,-0.002672390080988407,-0.0025028556119650602,-0.0023333211429417133,-0.0021637866739183664,-0.0019942522048950195,-0.0018247177358716726,-0.0016551832668483257,-0.0014856487978249788,-0.001316114328801632,-0.001146579859778285,-0.0009770453907549381,-0.0008075109217315912,-0.0006379769183695316,-0.00046844244934618473,-0.00029890798032283783,-0.00012937351129949093,4.016095772385597e-05,0.00020969542674720287,0.0003792298957705498,0.0005487643647938967,0.0007182988338172436,0.0008878333028405905,0.0010573677718639374,0.0012269022408872843,0.0013964367099106312,0.001565971178933978,0.001735505647957325,0.0019050401169806719,0.002074574586004019,0.0022441090550273657,0.0024136435240507126,0.0025831779930740595,0.0027527124620974064,0.0029222469311207533,0.0030917814001441,0.003261315869167447,0.003430850338190794,0.003600384807214141,0.003769919276237488,0.003939453512430191,0.004108988214284182,0.004278522916138172,0.004448057152330875,0.004617591388523579,0.004787126090377569],"_type":"histogram","values":[1,0,0,0,2,2,1,1,0,1,0,2,2,6,3,1,3,4,6,5,9,12,10,14,11,26,37,33,60,67,116,207,340,618,1939,16853,6120,1007,525,241,162,95,63,42,28,24,24,16,12,7,7,7,6,2,4,3,1,3,1,1,2,1,2,2]},"gradients/selfattn_layer.in_proj_weight":{"_type":"histogram","values":[1,1,1,2,0,0,3,3,3,12,10,11,15,18,21,38,49,59,79,92,120,169,230,263,389,503,800,1100,1669,2575,4124,7122,8558,5159,3258,2091,1308,913,636,429,303,234,194,141,108,82,74,44,36,41,23,23,23,5,9,6,5,7,2,2,1,0,1,2],"bins":[-0.0011404994875192642,-0.0011050950270146132,-0.001069690682925284,-0.0010342862224206328,-0.0009988817619159818,-0.0009634773596189916,-0.0009280729573220015,-0.0008926684968173504,-0.0008572640945203602,-0.0008218596922233701,-0.000786455231718719,-0.0007510508294217288,-0.0007156464271247387,-0.0006802419666200876,-0.0006448375643230975,-0.0006094331038184464,-0.0005740287015214562,-0.0005386242992244661,-0.000503219838719815,-0.00046781543642282486,-0.00043241100502200425,-0.00039700657362118363,-0.0003616021713241935,-0.00032619773992337286,-0.00029079330852255225,-0.00025538887712173164,-0.00021998446027282625,-0.00018458004342392087,-0.00014917561202310026,-0.00011377118789823726,-7.836676377337426e-05,-4.296233964851126e-05,-7.557915523648262e-06,2.7846508601214737e-05,6.325093272607774e-05,9.865535685094073e-05,0.00013405978097580373,0.00016946421237662435,0.00020486862922552973,0.00024027304607443511,0.00027567747747525573,0.00031108190887607634,0.00034648634027689695,0.0003818907425738871,0.0004172951739747077,0.00045269960537552834,0.0004881040076725185,0.0005235084681771696,0.0005589128704741597,0.0005943172727711499,0.0006297217332758009,0.0006651261355727911,0.0007005305960774422,0.0007359349983744323,0.0007713394006714225,0.0008067438611760736,0.0008421482634730637,0.0008775526657700539,0.0009129571262747049,0.0009483615285716951,0.0009837659308686852,0.0010191703913733363,0.0010545748518779874,0.0010899791959673166,0.0011253836564719677]},"gradients/frame_linear.0.weight":{"bins":[-0.002896060235798359,-0.0027875301893800497,-0.0026790001429617405,-0.0025704700965434313,-0.002461940050125122,-0.002353410003706813,-0.0022448801901191473,-0.002136350143700838,-0.002027820097282529,-0.0019192900508642197,-0.0018107600044459105,-0.0017022299580276012,-0.001593699911609292,-0.0014851698651909828,-0.0013766399351879954,-0.0012681098887696862,-0.001159579842351377,-0.0010510497959330678,-0.0009425198077224195,-0.0008339897613041103,-0.000725459773093462,-0.0006169297266751528,-0.0005083996802568436,-0.0003998696629423648,-0.00029133964562788606,-0.0001828096283134073,-7.427959644701332e-05,3.425042814342305e-05,0.00014278045273385942,0.0002513104700483382,0.0003598405164666474,0.00046837053378112614,0.0005769005510956049,0.0006854305975139141,0.0007939605857245624,0.0009024906321428716,0.00101102062035352,0.0011195506667718291,0.0012280807131901383,0.0013366107596084476,0.001445140689611435,0.0015536707360297441,0.0016622007824480534,0.0017707308288663626,0.0018792608752846718,0.001987790921702981,0.00209632096812129,0.0022048510145395994,0.0023133810609579086,0.002421910874545574,0.0025304409209638834,0.0026389709673821926,0.002747501013800502,0.002856031060218811,0.0029645611066371202,0.0030730911530554295,0.0031816211994737387,0.003290151245892048,0.003398681292310357,0.0035072111058980227,0.003615741152316332,0.003724271198734641,0.0038328012451529503,0.003941331524401903,0.004049861337989569],"_type":"histogram","values":[1,1,4,4,1,2,3,5,5,13,13,13,20,27,31,42,54,60,75,90,123,158,212,322,322,465,510,486,385,305,232,188,114,102,88,74,56,44,31,24,23,11,12,8,11,6,3,2,1,6,4,2,2,0,0,1,1,0,0,0,1,0,0,1]},"gradients/frame_linear.1.weight":{"values":[1,1,0,0,0,0,0,1,0,1,0,1,3,2,1,2,2,1,0,2,0,0,0,2,0,2,0,2,3,2,0,1,2,1,0,0,1,0,0,0,0,2,0,0,0,0,0,0,0,1,0,0,0,0,0,0,0,1,0,0,1,0,0,1],"bins":[-0.0008955856319516897,-0.0008641657768748701,-0.0008327459800057113,-0.0008013261249288917,-0.000769906269852072,-0.0007384864729829133,-0.0007070666179060936,-0.0006756467628292739,-0.0006442269077524543,-0.0006128071108832955,-0.0005813872558064759,-0.0005499674007296562,-0.0005185476038604975,-0.0004871277487836778,-0.0004557079228106886,-0.00042428806773386896,-0.00039286824176087976,-0.00036144841578789055,-0.0003300285607110709,-0.0002986087347380817,-0.00026718887966126204,-0.00023576905368827283,-0.00020434922771528363,-0.0001729293871903792,-0.00014150954666547477,-0.00011008970614057034,-7.866987289162353e-05,-4.7250036004697904e-05,-1.583019911777228e-05,1.558963776915334e-05,4.7009474656078964e-05,7.842930790502578e-05,0.00010984914842993021,0.00014126898895483464,0.00017268882947973907,0.00020410865545272827,0.0002355284959776327,0.00026694833650253713,0.00029836816247552633,0.000329788017552346,0.0003612078435253352,0.0003926276694983244,0.00042404752457514405,0.00045546735054813325,0.00048688717652112246,0.0005183070315979421,0.0005497268866747618,0.0005811466835439205,0.0006125665386207402,0.0006439863936975598,0.0006754061905667186,0.0007068260456435382,0.0007382459007203579,0.0007696656975895166,0.0008010855526663363,0.000832505407743156,0.0008639252046123147,0.0008953450596891344,0.000926764914765954,0.0009581847698427737,0.0009896046249195933,0.001021024421788752,0.0010524442186579108,0.0010838641319423914,0.0011152839288115501],"_type":"histogram"},"gradients/frame_linear.0.bias":{"bins":[-0.0018390617333352566,-0.001788892550393939,-0.0017387233674526215,-0.001688554184511304,-0.0016383848851546645,-0.001588215702213347,-0.0015380465192720294,-0.0014878773363307118,-0.0014377081533893943,-0.0013875389704480767,-0.0013373696710914373,-0.0012872004881501198,-0.0012370313052088022,-0.0011868621222674847,-0.001136692939326167,-0.0010865237563848495,-0.001036354573443532,-0.0009861852740868926,-0.000936016091145575,-0.0008858469082042575,-0.0008356777252629399,-0.0007855084841139615,-0.0007353393011726439,-0.0006851701182313263,-0.0006350008770823479,-0.0005848316941410303,-0.0005346625111997128,-0.00048449329915456474,-0.0004343240871094167,-0.00038415490416809916,-0.00033398569212295115,-0.0002838165091816336,-0.00023364729713648558,-0.0001834780996432528,-0.00013330890215002,-8.313969010487199e-05,-3.29704926116392e-05,1.7198708519572392e-05,6.736790965078399e-05,0.00011753711441997439,0.00016770631191320717,0.00021787550940643996,0.00026804470689967275,0.00031821391894482076,0.0003683831309899688,0.00041855231393128633,0.00046872152597643435,0.0005188907380215824,0.0005690599209628999,0.0006192291039042175,0.000669398345053196,0.0007195675279945135,0.0007697367109358311,0.0008199059520848095,0.0008700751350261271,0.0009202443179674447,0.0009704135591164231,0.0010205827420577407,0.0010707519249990582,0.0011209211079403758,0.0011710902908816934,0.0012212595902383327,0.0012714287731796503,0.0013215979561209679,0.0013717671390622854],"_type":"histogram","values":[1,0,1,0,0,0,0,0,0,1,0,0,0,0,0,0,1,0,0,0,1,0,1,1,0,0,0,1,0,2,1,1,3,0,1,2,2,1,1,1,1,1,3,0,0,1,1,1,1,1,1,1,2,0,0,0,2,0,0,0,0,0,0,1]},"gradients/frame_linear.4.bias":{"bins":[-0.004356594756245613,-0.004199516493827105,-0.004042438231408596,-0.003885359736159444,-0.0037282812409102917,-0.003571202978491783,-0.0034141247160732746,-0.0032570462208241224,-0.003099967958405614,-0.0029428896959871054,-0.002785811200737953,-0.0026287329383194447,-0.002471654675900936,-0.002314576180651784,-0.0021574979182332754,-0.0020004194229841232,-0.0018433411605656147,-0.0016862627817317843,-0.001529184402897954,-0.0013721061404794455,-0.001215027761645615,-0.0010579493828117847,-0.0009008710621856153,-0.0007437927415594459,-0.0005867143627256155,-0.0004296360129956156,-0.0002725576632656157,-0.0001154793135356158,4.15990361943841e-05,0.000198677385924384,0.0003557557356543839,0.0005128340562805533,0.0006699124351143837,0.000826990813948214,0.0009840691927820444,0.001141147455200553,0.0012982258340343833,0.0014553042128682137,0.0016123824752867222,0.0017694608541205525,0.001926539232954383,0.0020836174953728914,0.0022406959906220436,0.002397774253040552,0.0025548525154590607,0.002711931010708213,0.0028690092731267214,0.0030260877683758736,0.003183166030794382,0.0033402442932128906,0.003497322788462043,0.0036544010508805513,0.0038114795461297035,0.003968557808548212,0.004125636070966721,0.004282714333385229,0.004439792595803738,0.0045968713238835335,0.004753949586302042,0.0049110278487205505,0.005068106111139059,0.005225184373557568,0.0053822631016373634,0.005539341364055872,0.0056964196264743805],"_type":"histogram","values":[1,0,0,0,0,0,0,0,0,0,0,0,0,0,0,0,0,0,0,0,0,1,0,0,0,0,0,0,0,0,0,0,0,0,0,0,0,0,0,0,0,0,0,0,0,0,0,0,0,0,0,0,0,0,0,0,0,0,0,0,0,0,0,1]},"gradients/rnn.weight_hh_l1":{"bins":[-0.009931949898600578,-0.009630497545003891,-0.009329046122729778,-0.009027593769133091,-0.008726141415536404,-0.008424689993262291,-0.008123237639665604,-0.007821785286068916,-0.007520333398133516,-0.007218881510198116,-0.006917429156601429,-0.006615977268666029,-0.006314525380730629,-0.006013073027133942,-0.005711621139198542,-0.005410168785601854,-0.005108716897666454,-0.004807265009731054,-0.004505812656134367,-0.004204360768198967,-0.0039029086474329233,-0.0036014565266668797,-0.0033000046387314796,-0.002998552517965436,-0.0026971003971993923,-0.0023956482764333487,-0.002094196155667305,-0.001792744267731905,-0.0014912921469658613,-0.0011898400261998177,-0.0008883880218490958,-0.0005869359592907131,-0.00028548482805490494,1.5967234503477812e-05,0.00031741929706186056,0.0006188713596202433,0.0009203234221786261,0.0012217755429446697,0.0015232275472953916,0.0018246795516461134,0.002126131672412157,0.0024275837931782007,0.0027290359139442444,0.0030304878018796444,0.003331939922645688,0.0036333920434117317,0.003934843931347132,0.004236296284943819,0.004537748172879219,0.004839200060814619,0.005140652414411306,0.005442104302346706,0.005743556655943394,0.006045008543878794,0.006346460431814194,0.006647912785410881,0.006949364673346281,0.007250816561281681,0.007552268914878368,0.007853721268475056,0.008155172690749168,0.008456625044345856,0.008758077397942543,0.009059528820216656,0.009360981173813343],"_type":"histogram","values":[1,0,0,1,2,3,2,0,1,3,3,7,0,0,3,3,7,8,16,12,18,25,20,49,47,64,83,101,170,244,486,1178,5949,4152,732,320,187,129,89,58,53,42,25,22,14,16,13,6,7,2,2,2,2,1,4,0,5,3,4,1,0,2,0,1]},"gradients/rnn.bias_ih_l0_reverse":{"bins":[-0.008276855573058128,-0.008025412447750568,-0.007773970253765583,-0.00752252759411931,-0.007271084934473038,-0.007019641809165478,-0.006768199149519205,-0.0065167564898729324,-0.00626531383022666,-0.006013871170580387,-0.0057624285109341145,-0.005510985851287842,-0.005259542725980282,-0.005008100066334009,-0.0047566574066877365,-0.004505214747041464,-0.004253772087395191,-0.0040023294277489185,-0.003750886768102646,-0.0034994438756257296,-0.003248001215979457,-0.0029965585563331842,-0.002745115663856268,-0.0024936730042099953,-0.0022422303445637226,-0.00199078768491745,-0.0017393449088558555,-0.001487902132794261,-0.0012364594731479883,-0.0009850168135017157,-0.0007335740374401212,-0.0004821313195861876,-0.0002306876704096794,2.075504744425416e-05,0.00027219776529818773,0.0005236404831521213,0.0007750832010060549,0.0010265258606523275,0.001277968636713922,0.0015294114127755165,0.0017808540724217892,0.002032296732068062,0.0022837393917143345,0.002535182284191251,0.0027866249438375235,0.003038067603483796,0.0032895104959607124,0.003540953155606985,0.0037923958152532578,0.00404383847489953,0.004295281134545803,0.004546723794192076,0.004798166453838348,0.005049609579145908,0.005301052238792181,0.005552494898438454,0.005803937558084726,0.006055380217730999,0.006306822877377272,0.006558265537023544,0.006809708662331104,0.007061151321977377,0.00731259398162365,0.007564036641269922,0.007815479300916195],"_type":"histogram","values":[1,0,1,0,0,0,0,0,0,0,1,1,0,1,0,1,0,1,0,1,0,3,0,2,2,0,3,4,7,10,24,38,32,32,24,18,3,4,3,2,3,2,2,2,1,2,1,1,2,1,0,1,0,0,1,0,0,0,0,0,1,0,0,1]},"gradients/rnn.weight_ih_l2":{"values":[1,0,0,0,0,0,0,0,0,0,0,0,0,1,0,0,0,0,0,1,4,4,1,4,8,5,10,6,7,14,8,26,49,64,89,160,243,450,1071,5676,16771,2491,665,364,199,122,78,54,40,14,22,17,8,7,6,9,7,7,5,3,3,1,3,2],"bins":[-0.005840185564011335,-0.005695241969078779,-0.00555029883980751,-0.005405355244874954,-0.005260411649942398,-0.005115468520671129,-0.004970524925738573,-0.004825581330806017,-0.004680638201534748,-0.004535694606602192,-0.004390751011669636,-0.004245807882398367,-0.004100864287465811,-0.003955920692533255,-0.0038109775632619858,-0.0036660339683294296,-0.003521090606227517,-0.0033761472441256046,-0.0032312036491930485,-0.003086260287091136,-0.0029413169249892235,-0.0027963733300566673,-0.002651429967954755,-0.0025064866058528423,-0.002361543010920286,-0.0022165996488183737,-0.002071656286716461,-0.0019267128081992269,-0.0017817693296819925,-0.00163682596758008,-0.0014918824890628457,-0.0013469391269609332,-0.0012019958812743425,-0.0010570524027571082,-0.0009121090406551957,-0.0007671655621379614,-0.000622222141828388,-0.00047727872151881456,-0.0003323352721054107,-0.00018739183724392205,-4.2448402382433414e-05,0.00010249503247905523,0.00024743846734054387,0.00039238191675394773,0.0005373253370635211,0.0006822687573730946,0.0008272122358903289,0.0009721556561999023,0.0011170990765094757,0.00126204255502671,0.0014069859171286225,0.0015519293956458569,0.0016968727577477694,0.0018418162362650037,0.001986759714782238,0.0021317030768841505,0.002276646438986063,0.002421590033918619,0.0025665333960205317,0.002711476758122444,0.0028564203530550003,0.003001363715156913,0.0031463070772588253,0.0032912506721913815,0.003436194034293294],"_type":"histogram"},"_timestamp":1.7371182988777542e+09,"_runtime":2164.20112939,"gradients/rnn.bias_hh_l2_reverse":{"values":[1,0,0,0,0,0,0,0,0,0,0,0,3,0,0,1,0,0,1,1,1,1,3,0,6,6,8,32,67,70,13,7,4,3,2,3,0,0,2,0,0,1,0,1,0,0,0,0,0,0,1,0,0,0,0,1,0,0,0,0,0,0,0,1],"bins":[-0.005777666345238686,-0.005577616393566132,-0.00537756597623229,-0.005177516024559736,-0.004977466072887182,-0.004777416121214628,-0.004577365703880787,-0.004377315752208233,-0.004177265800535679,-0.0039772153832018375,-0.0037771654315292835,-0.0035771154798567295,-0.003377065295353532,-0.003177015343680978,-0.00297696515917778,-0.002776915207505226,-0.0025768650230020285,-0.002376814838498831,-0.0021767648868262768,-0.001976714702323079,-0.001776664750650525,-0.0015766145661473274,-0.0013765644980594516,-0.0011765144299715757,-0.0009764643618836999,-0.000776414293795824,-0.0005763642257079482,-0.00037631409941241145,-0.0001762640313245356,2.3786051315255463e-05,0.00022383613395504653,0.00042388623114675283,0.0006239362992346287,0.0008239863673225045,0.0010240364354103804,0.0012240865034982562,0.001424136571586132,0.0016241867560893297,0.0018242368241772056,0.0020242868922650814,0.0022243368439376354,0.002424387028440833,0.0026244372129440308,0.0028244871646165848,0.0030245373491197824,0.0032245873007923365,0.003424637485295534,0.003624687436968088,0.003824737621471286,0.0040247878059744835,0.0042248377576470375,0.0044248877093195915,0.004624938126653433,0.004824988078325987,0.005025038029998541,0.005225087981671095,0.005425138399004936,0.00562518835067749,0.005825238302350044,0.006025288719683886,0.00622533867135644,0.006425388623028994,0.006625438574701548,0.006825488992035389,0.007025538943707943],"_type":"histogram"},"gradients/rnn.weight_ih_l0":{"_type":"histogram","values":[1,0,0,0,0,1,1,2,3,2,3,4,8,8,17,18,22,19,35,35,46,57,64,79,93,91,87,130,168,236,511,1358,2754,1953,739,327,160,108,92,68,52,43,30,34,23,22,17,17,14,7,8,4,4,5,6,6,2,3,1,0,1,0,0,1],"bins":[-0.007445851340889931,-0.007217809557914734,-0.006989767774939537,-0.006761725526303053,-0.006533683743327856,-0.006305641960352659,-0.006077600177377462,-0.0058495583944022655,-0.005621516145765781,-0.0053934743627905846,-0.005165432579815388,-0.004937390796840191,-0.004709349013864994,-0.004481307230889797,-0.004253264982253313,-0.004025223199278116,-0.0037971814163029194,-0.0035691396333277225,-0.003341097617521882,-0.0031130558345466852,-0.0028850138187408447,-0.002656972035765648,-0.002428930252790451,-0.0022008882369846106,-0.0019728464540094137,-0.001744804554618895,-0.0015167626552283764,-0.0012887208722531796,-0.0010606789728626609,-0.0008326370734721422,-0.0006045952322892845,-0.00037655336200259626,-0.00014851102605462074,7.953084423206747e-05,0.0003075727145187557,0.0005356145557016134,0.0007636564550921321,0.0009916983544826508,0.0012197401374578476,0.0014477820368483663,0.001675823936238885,0.0019038658356294036,0.0021319077350199223,0.002359949517995119,0.002587991300970316,0.0028160333167761564,0.0030440750997513533,0.0032721171155571938,0.0035001588985323906,0.0037282006815075874,0.003956242464482784,0.004184284713119268,0.004412326496094465,0.004640368279069662,0.004868410062044859,0.005096451845020056,0.00532449409365654,0.005552535876631737,0.005780577659606934,0.00600861944258213,0.006236661225557327,0.006464703008532524,0.006692745257169008,0.006920787040144205,0.007148828823119402]},"Current_lr":0.0005}